// Auto-generated SVM model for DDoS detection
// Generated from CIC-DDoS2019 dataset

#ifndef SVM_MODEL_H
#define SVM_MODEL_H

#include <stdint.h>

#define SVM_NUM_FEATURES 24
#define SVM_NUM_SUPPORT_VECTORS 124
#define SVM_GAMMA 0.1000000000f
#define SVM_BIAS 0.1677479799f

static const float svm_weights[SVM_NUM_SUPPORT_VECTORS] = {
    -1.0000000000f,
    -0.5907322834f,
    -0.1902606741f,
    -0.6075770161f,
    -1.0000000000f,
    -0.8978708424f,
    -1.0000000000f,
    -0.4332174735f,
    -0.5875549487f,
    -0.2583284649f,
    -1.0000000000f,
    -0.6332924394f,
    -0.6490975886f,
    -1.0000000000f,
    -1.0000000000f,
    -0.9719480947f,
    -0.6516350671f,
    -0.8932511834f,
    -1.0000000000f,
    -0.9096251458f,
    -0.9954253589f,
    -1.0000000000f,
    -0.6061401265f,
    -1.0000000000f,
    -1.0000000000f,
    -1.0000000000f,
    -1.0000000000f,
    -1.0000000000f,
    -0.6077246160f,
    -0.7831143207f,
    -0.5841121978f,
    -1.0000000000f,
    -1.0000000000f,
    -1.0000000000f,
    -1.0000000000f,
    -1.0000000000f,
    -0.5885721744f,
    -1.0000000000f,
    -1.0000000000f,
    -1.0000000000f,
    -0.6105237266f,
    -0.6232479699f,
    -0.4315565836f,
    -0.8007553894f,
    -0.5755669246f,
    0.6372878557f,
    0.2635734840f,
    0.0052407076f,
    0.5479255630f,
    0.2641485843f,
    0.7749406141f,
    0.0584673636f,
    0.0289566819f,
    0.2033872575f,
    0.4054182543f,
    0.8318596882f,
    0.8319977902f,
    0.8321658207f,
    0.4495277177f,
    0.0334228968f,
    0.3450083667f,
    0.8322638122f,
    1.0000000000f,
    1.0000000000f,
    0.8247156875f,
    0.4647020547f,
    0.1677396881f,
    0.2118318122f,
    0.8320935331f,
    0.3581215537f,
    0.0039658966f,
    1.0000000000f,
    0.7172740597f,
    0.5561796756f,
    0.1058864389f,
    0.3062030946f,
    0.2948214253f,
    0.4136221993f,
    0.0784871795f,
    0.3564588063f,
    0.0234952587f,
    0.6138327466f,
    0.4477748408f,
    0.3902705149f,
    0.5439487913f,
    0.4620466836f,
    0.2848414088f,
    0.4408802313f,
    0.1114581933f,
    0.6383226633f,
    0.3109546263f,
    0.1173184269f,
    0.8322581996f,
    1.0000000000f,
    0.8085663311f,
    0.1972142224f,
    0.3182172710f,
    0.4859029424f,
    0.8318779244f,
    0.7327303917f,
    1.0000000000f,
    0.2507583672f,
    0.6760393286f,
    0.2642333217f,
    0.0038969738f,
    0.2016819830f,
    0.8323294820f,
    0.4297234130f,
    0.2526153796f,
    0.8319404938f,
    0.3033623395f,
    0.8318779244f,
    0.5830821775f,
    0.5224097400f,
    0.3789604405f,
    0.1693608468f,
    0.2601955399f,
    0.8318229827f,
    0.3374069336f,
    0.7829400909f,
    0.0858417263f,
    0.8325164342f,
    0.1245990584f,
    0.0639284008f
};

static const float svm_support_vectors[SVM_NUM_SUPPORT_VECTORS][SVM_NUM_FEATURES] = {
    {0.3456144065f, -0.0034780397f, 13.3109920527f, -0.7614034992f, 0.7139976151f, -1.7766662709f, -1.9706939495f, -4.5003684672f, 7.3938674501f, 5.3038564014f, -0.0071583604f, 0.3150615100f, 0.9912927603f, 0.5717474547f, -0.0035937215f, -34.3563648708f, 31.7926200082f, -1.7153211280f, 78.4400800220f, 0.0000000000f, 0.0000000000f, 0.0000000000f, 29.2147922234f, 1.1823671368f},
    {-0.0091412186f, -0.0034780397f, -0.0168263708f, -0.7861203922f, -0.0067597443f, -1.7766669000f, -1.0958767774f, -4.5767964719f, -0.0118388730f, -0.0096152006f, -0.0071583604f, -0.0053415609f, -0.0082670787f, -0.0089501965f, -0.0035937215f, -53.1106922352f, -0.4338719646f, -1.7387852080f, -0.0127485846f, 0.0000000000f, 0.0000000000f, 0.0000000000f, -0.0126602624f, -0.0099457391f},
    {0.0542715308f, -0.0067569858f, 13.3109920527f, -0.7689260318f, 0.7453348916f, -1.7766638402f, -1.9706077511f, -4.4704618567f, -0.0118388730f, 5.5348769059f, -0.0071583604f, 0.0901136588f, 0.2758385376f, 0.1150433531f, -0.0035871450f, 0.0265686304f, 33.0100374697f, -1.7359779930f, -0.0127485846f, 0.0000000000f, 0.0000000000f, 0.0000000000f, -0.0126602624f, -0.0099457391f},
    {0.0201089082f, -0.0067569858f, 13.3109920527f, -0.7726872982f, 0.6356544238f, -1.7766614282f, -1.9704702275f, -4.4937225537f, -0.0118388730f, 4.7263051404f, -0.0071583604f, 0.0386886587f, 0.1227612304f, 0.0482379950f, -0.0035871450f, 0.0265686304f, 34.4085179123f, -1.7359779930f, -0.0127485846f, 0.0000000000f, 0.0000000000f, 0.0000000000f, -0.0126602624f, -0.0099457391f},
    {85.5483478606f, 0.0178351104f, 106.6057210172f, -0.5411007573f, 131.2650914970f, -1.7766666495f, -1.9707248132f, -4.3985296170f, 21.2047455262f, 120.9584964350f, 135.8179718037f, 12.0686810732f, 117.1421844428f, 166.9823388753f, -0.0035937215f, -34.3563648708f, 27.6183842547f, -1.7153211280f, -0.0127485846f, 0.0000000000f, 0.0000000000f, 0.0000000000f, 115.3190826825f, 1.1493782430f},
    {0.0201701010f, -0.0067569858f, 13.3109920527f, -0.7415225200f, 3.2993229260f, -1.7766425764f, -1.9704707603f, -4.3009910637f, -0.0118388730f, 24.3630480175f, -0.0071583604f, 0.0387807721f, 0.1230354082f, 0.0483576530f, -0.0035871450f, 0.0265686304f, 27.1176064601f, -1.7359779930f, -0.0127485846f, 0.0000000000f, 0.0000000000f, 0.0000000000f, -0.0126602624f, -0.0099457391f},
    {0.0792794358f, -0.0034780397f, 26.6388104762f, -0.7614034992f, 0.7139976151f, -1.7766643763f, -1.9705565867f, -4.5003684672f, 7.3938674501f, 2.6471206004f, 3.6551966629f, 0.0516937897f, 0.1713955351f, 0.1059771700f, -0.0035937215f, -34.3563648708f, 30.6442565965f, -1.7153211280f, 78.4400800220f, 0.0000000000f, 0.0000000000f, 0.0000000000f, 0.4523219362f, 1.1729417386f},
    {0.0203394483f, -0.0067569858f, 13.3109920527f, -0.7673140606f, 0.7923408063f, -1.7766598258f, -1.9704722234f, -4.4604929865f, -0.0118388730f, 5.8814076625f, -0.0071583604f, 0.0390356907f, 0.1238133081f, 0.0486943652f, -0.0035937215f, 0.0265686304f, 34.5890371607f, -1.7359779930f, -0.0127485846f, 0.0000000000f, 0.0000000000f, 0.0000000000f, -0.0126602624f, -0.0099457391f},
    {-0.0091497571f, -0.0067569858f, -0.0168263708f, -0.7777918739f, -0.0067597443f, -1.7766669000f, -1.9707255335f, -4.5252906426f, 6.1006203876f, -0.0096152006f, -0.0071583604f, -0.0053544139f, -0.0082862074f, -0.0089613275f, -0.0036002981f, -34.3563648708f, 31.7790266913f, -1.7153211280f, 78.4400800220f, 0.0000000000f, 0.0000000000f, 0.0000000000f, 29.3781643473f, -0.0099457391f},
    {-0.0078760944f, -0.0034780397f, -0.0168263708f, -0.7530749809f, -0.0067597443f, -1.7765497714f, -1.9648606257f, -4.4746155526f, 6.0350736181f, -0.0096152006f, -0.0071583604f, -0.0034371693f, -0.0025986115f, -0.0064763362f, -0.0035937215f, -34.3563648708f, 27.6009848090f, -1.7153211280f, 78.4400800220f, 0.0000000000f, 0.0000000000f, 0.0000000000f, 0.4469360420f, -0.0099457391f},
    {-0.0089206401f, -0.0083964589f, 33.3027196880f, -0.7861203922f, 0.5729798708f, -1.7762751703f, -1.9218209447f, -4.5767964719f, -0.0118388730f, 1.6999365322f, 2.7874798257f, -0.0051474800f, -0.0077369775f, -0.0086413118f, -0.0035937215f, -34.3563648708f, -0.1810362702f, 1.3953379039f, -0.0127485846f, 0.0000000000f, 0.0000000000f, 0.0000000000f, 0.4307783594f, 76.9248673038f},
    {-0.0091469110f, -0.0067569858f, -0.0168263708f, -0.7861203922f, -0.0067597443f, -1.7766669000f, -0.6584523993f, -4.5767964719f, -0.0118388730f, -0.0096152006f, -0.0071583604f, -0.0053415609f, -0.0082862074f, -0.0089557620f, -0.0035871450f, -34.3563648708f, 31.7235659583f, -1.7153211280f, -0.0127485846f, 0.0000000000f, 0.0000000000f, 0.0000000000f, 29.2866041460f, -0.0099457391f},
    {10.4604132903f, -0.0067569858f, 53.2944473232f, -0.7861203922f, -0.0067597443f, -1.7766669000f, -1.9707237498f, -4.5767964719f, -0.0118388730f, -0.0096152006f, -0.0071583604f, 5.2479237743f, 16.2108857349f, 11.8457575733f, -0.0036002981f, -34.3563648708f, 30.6072827745f, -1.7345479024f, -0.0127485846f, 0.0000000000f, 0.0000000000f, 0.0000000000f, 14.6962167779f, 137.6055811010f},
    {0.0287000835f, -0.0083964589f, 6.6470828410f, -0.7861203922f, -0.0067597443f, -1.7766669000f, -1.9706268553f, -4.5767964719f, -0.0118388730f, -0.0096152006f, -0.0071583604f, 0.1655716954f, -0.0082862074f, 0.0650513400f, 0.1713163242f, -34.3563648708f, 31.7181286316f, -1.7345479024f, -0.0127485846f, 0.0000000000f, 0.0000000000f, 0.0000000000f, 29.4015032221f, 1.1729417386f},
    {-0.0087811776f, -0.0083964589f, 13.3109920527f, -0.7861203922f, -0.0067597443f, -1.7766669000f, -1.9555254586f, -4.5767964719f, -0.0118388730f, -0.0096152006f, -0.0071583604f, -0.0045221798f, -0.0062636108f, -0.0082405965f, -0.0036002981f, -34.3563648708f, -0.1929983891f, 1.2869688123f, -0.0127485846f, 0.0000000000f, 0.0000000000f, 0.0000000000f, 0.2368861685f, 1.2012179333f},
    {0.0203664869f, -0.0067569858f, 13.3109920527f, -0.7630154705f, 1.5444354422f, -1.7766552300f, -1.9704724554f, -4.4339093327f, -0.0118388730f, 11.4258997690f, -0.0071583604f, 0.0390763920f, 0.1239057633f, 0.0487388891f, -0.0035805684f, 0.0265686304f, 27.1817669158f, -1.7359779930f, -0.0127485846f, 0.0000000000f, 0.0000000000f, 0.0000000000f, -0.0126602624f, -0.0099457391f},
    {10.1512263288f, -0.0067569858f, 53.2944473232f, -0.7861203922f, -0.0067597443f, -1.7766669000f, -1.9707236955f, -4.5767964719f, -0.0118388730f, -0.0096152006f, -0.0071583604f, 5.0927840503f, 15.5757724811f, 11.3001781634f, -0.0035937215f, -34.3563648708f, 31.8198066420f, -1.7345479024f, -0.0127485846f, 0.0000000000f, 0.0000000000f, 0.0000000000f, 14.6962167779f, 137.6055811010f},
    {0.0201359469f, -0.0067569858f, 13.3109920527f, -0.7538809665f, 2.9389442463f, -1.7766463582f, -1.9704704632f, -4.3774190684f, -0.0118388730f, 21.7063122164f, -0.0071583604f, 0.0387293600f, 0.1229015074f, 0.0482964327f, -0.0035937215f, 0.0265686304f, 29.3044992829f, -1.7359779930f, -0.0127485846f, 0.0000000000f, 0.0000000000f, 0.0000000000f, -0.0126602624f, -0.0099457391f},
    {0.1015478986f, 0.0129166911f, 93.2779025937f, 0.4013651192f, 80.6162183605f, -1.7765057182f, -1.9702531712f, -3.5276915629f, 156.2403722016f, 84.8986709121f, 136.9195039876f, 0.0131603855f, 0.0666411220f, 0.0509428231f, -0.0035937215f, -34.3563648708f, 30.6312070123f, -1.7153211280f, -0.0127485846f, 0.0000000000f, 0.0000000000f, 0.0000000000f, 14.6962167779f, 0.0513193494f},
    {0.0203864102f, -0.0067569858f, 13.3109920527f, -0.7592542042f, 2.0615005044f, -1.7766519528f, -1.9704726262f, -4.4106486356f, -0.0118388730f, 15.2377380922f, -0.0071583604f, 0.0391063824f, 0.1239950305f, 0.0487778475f, -0.0035805684f, 0.0265686304f, 33.0845288463f, -1.7359779930f, -0.0127485846f, 0.0000000000f, 0.0000000000f, 0.0000000000f, -0.0126602624f, -0.0099457391f},
    {0.0205415266f, -0.0067569858f, 13.3109920527f, -0.7694633556f, 0.7296662533f, -1.7766605275f, -1.9704739474f, -4.4737848134f, -0.0118388730f, 5.4193666537f, -0.0071583604f, 0.0393398792f, 0.1246900394f, 0.0490811667f, -0.0035805684f, 0.0265686304f, 28.2714071985f, -1.7359779930f, -0.0127485846f, 0.0000000000f, 0.0000000000f, 0.0000000000f, -0.0126602624f, -0.0099457391f},
    {-0.0089661789f, -0.0083964589f, 13.3109920527f, -0.7861203922f, -0.0067597443f, -1.7766669000f, -1.9402075537f, -4.5767964719f, -0.0118388730f, -0.0096152006f, -0.0071583604f, -0.0049399035f, -0.0073100507f, -0.0086079189f, -0.0035871450f, -34.3563648708f, -0.1929983891f, 1.3704437333f, -0.0127485846f, 0.0000000000f, 0.0000000000f, 0.0000000000f, 0.4451407440f, -0.0052330400f},
    {-0.0090046023f, -0.0083964589f, 13.3109920527f, -0.7861203922f, -0.0067597443f, -1.7766669000f, -1.9321292649f, -4.5767964719f, -0.0118388730f, -0.0096152006f, -0.0071583604f, -0.0050266615f, -0.0075052821f, -0.0086802702f, -0.0035937215f, -34.3563648708f, -0.1929983891f, 1.3984629168f, -0.0127485846f, 0.0000000000f, 0.0000000000f, 0.0000000000f, 0.5959457814f, 77.0002704896f},
    {136.4784099908f, 0.0260324758f, 133.2613578642f, -0.7665080749f, -0.0067597443f, -1.7766668993f, -1.9707249589f, -4.5657702973f, 3.0830051859f, -0.0096152006f, -0.0071583604f, 15.0279192999f, 46.4127874158f, 27.8550117269f, -0.0035937215f, -34.3563648708f, 31.7382467406f, -1.7153211280f, -0.0127485846f, 0.0000000000f, 0.0000000000f, 0.0000000000f, 113.2796240815f, 66.9245197830f},
    {0.1296410559f, -0.0051175128f, 133.2613578642f, -0.7861203922f, 228.7553586758f, -1.7764117273f, -1.9704160605f, -4.5767964719f, -0.0118388730f, 168.6353530381f, 130.6352826213f, 0.0231349263f, 0.1449486288f, 0.1312723217f, -0.0035937215f, -34.3563648708f, 31.7801141566f, -1.7345479024f, -0.0127485846f, 0.0000000000f, 0.0000000000f, 0.0000000000f, 29.4769057408f, 8.9111936845f},
    {148.0693526576f, 0.0539035181f, -0.0168263708f, -0.7861203922f, -0.0067597443f, -1.7766669000f, -1.9707250417f, -4.5767964719f, -0.0118388730f, -0.0096152006f, -0.0071583604f, 17.5922183388f, 47.5267345161f, 27.0622772585f, -0.0035937215f, -53.1106922352f, -0.4338719646f, -1.7387852080f, -0.0127485846f, 0.0000000000f, 0.0000000000f, 0.0000000000f, -0.0126602624f, -0.0099457391f},
    {0.5220729050f, 0.0129166911f, 53.2944473232f, 1.0440043371f, 60.1294738513f, -1.7766338216f, -1.9706481940f, -2.9599406709f, 215.3845600967f, 110.8224718028f, 160.3423372118f, 0.1088812346f, 0.4720108874f, 0.3352447439f, -0.0035937215f, -34.3563648708f, 27.6259965121f, -1.7153211280f, -0.0127485846f, 0.0000000000f, 0.0000000000f, 0.0000000000f, 115.3190826825f, 4.8299962514f},
    {0.0693405973f, -0.0083964589f, 19.9749012645f, -0.7861203922f, -0.0067597443f, -1.7766669000f, -1.9706303637f, -4.5767964719f, -0.0118388730f, -0.0096152006f, -0.0071583604f, 0.1127971265f, 0.3286781071f, 0.1402077157f, -0.0035871450f, -34.3563648708f, 27.5911976209f, -1.7345479024f, -0.0127485846f, 0.0000000000f, 0.0000000000f, 0.0000000000f, 0.4487313401f, 8.9111936845f},
    {-0.0089533711f, -0.0083964589f, 13.3109920527f, -0.7861203922f, -0.0067597443f, -1.7766669000f, -1.9421978567f, -4.5767964719f, -0.0118388730f, -0.0096152006f, -0.0071583604f, -0.0049109841f, -0.0072397674f, -0.0085828742f, -0.0035871450f, -34.3563648708f, -0.1929983891f, 1.3983040178f, -0.0127485846f, 0.0000000000f, 0.0000000000f, 0.0000000000f, 0.4379595517f, 77.8721198258f},
    {-0.0091483340f, -0.0067569858f, -0.0168263708f, -0.7777918739f, -0.0067597443f, -1.7502463178f, 0.6538207349f, -4.5252906426f, 6.1006203876f, -0.0096152006f, -0.0071583604f, -0.0053479874f, -0.0082862074f, -0.0089585447f, -0.0035937215f, -34.3563648708f, 30.6203323587f, -1.7153211280f, 78.4400800220f, 0.0000000000f, 0.0000000000f, 0.0000000000f, 0.4487313401f, -0.0099457391f},
    {-0.0069952037f, -0.0034780397f, -0.0168263708f, -0.7530749809f, -0.0067597443f, -1.7765976595f, -1.9672584975f, -4.4746155526f, 6.0350736181f, -0.0096152006f, -0.0071583604f, -0.0021111643f, 0.0013291516f, -0.0047593826f, -0.0035937215f, -34.3563648708f, 31.7969698696f, -1.7153211280f, 78.4400800220f, 0.0000000000f, 0.0000000000f, 0.0000000000f, 29.6061672014f, -0.0099457391f},
    {-0.0087996778f, -0.0083964589f, 13.3109920527f, -0.7861203922f, -0.0067597443f, -1.7766669000f, -1.9547222026f, -4.5767964719f, -0.0118388730f, -0.0096152006f, -0.0071583604f, -0.0045639522f, -0.0063807496f, -0.0082795550f, -0.0035937215f, -34.3563648708f, -0.1929983891f, 1.2818840455f, -0.0127485846f, 0.0000000000f, 0.0000000000f, 0.0000000000f, 0.6516000213f, 1.2059306324f},
    {159.6804206184f, 0.0096377450f, 26.6388104762f, -0.7168056271f, 1.2153940390f, -1.7766668968f, -1.9707253464f, -4.5053529023f, 5.4076515486f, 4.4952846359f, -0.0071583604f, 48.0707916371f, 217.2716921820f, 163.0867742160f, -0.0036002981f, -34.3563648708f, 31.7268283544f, -1.7153211280f, 78.4400800220f, 0.0000000000f, 0.0000000000f, 0.0000000000f, 29.4769057408f, 0.3058051015f},
    {0.0311791007f, -0.0067569858f, 13.3109920527f, -0.7855830684f, -0.0067597443f, -1.7766668398f, -1.9705403085f, -4.5734735152f, -0.0118388730f, -0.0096152006f, -0.0071583604f, 0.0553526209f, 0.1723906053f, 0.0698933162f, -0.0035937215f, -34.3563648708f, 31.7893576121f, -1.7153211280f, -0.0127485846f, 0.0000000000f, 0.0000000000f, 0.0000000000f, 29.4769057408f, 22.4036512491f},
    {-0.0091312570f, -0.0034780397f, -0.0168263708f, -0.5701162404f, -0.0067597443f, -1.7239568551f, -1.5669491845f, -3.9088821701f, -0.0118388730f, -0.0096152006f, -0.0071583604f, -0.0053265657f, -0.0082607025f, -0.0089418483f, -0.0035805684f, 0.0265686304f, -0.3588368553f, -1.7314758558f, -0.0127485846f, 0.0000000000f, 0.0000000000f, 0.0000000000f, -0.0126602624f, -0.0099457391f},
    {0.0205258727f, -0.0083964589f, 19.9749012645f, -0.7861203922f, 0.4789680414f, -1.7766643660f, -1.9704738147f, -4.5767964719f, -0.0118388730f, 2.3775966786f, 2.4609504597f, 0.0393163153f, 0.1237792158f, 0.0488056750f, -0.0035937215f, -34.3563648708f, 27.6183842547f, -1.7153211280f, -0.0127485846f, 0.0000000000f, 0.0000000000f, 0.0000000000f, 0.4487313401f, 1.1493782430f},
    {-0.0091440648f, -0.0034780397f, -0.0168263708f, -0.7861203922f, -0.0067597443f, -1.7766669000f, -0.6584523993f, -4.5767964719f, -0.0118388730f, -0.0096152006f, -0.0071583604f, -0.0053458452f, -0.0082693375f, -0.0089529793f, -0.0036002981f, -53.1106922352f, -0.4338719646f, -1.7387852080f, -0.0127485846f, 0.0000000000f, 0.0000000000f, 0.0000000000f, -0.0126602624f, -0.0099457391f},
    {-0.0091440648f, -0.0051175128f, -0.0168263708f, -0.7861203922f, -0.0067597443f, -1.7766669000f, -0.9865206829f, -4.5767964719f, -0.0118388730f, -0.0096152006f, -0.0071583604f, -0.0053415609f, -0.0082705889f, -0.0089529793f, -0.0035937215f, -34.3563648708f, -0.1929983891f, 1.3930603521f, -0.0127485846f, 0.0000000000f, 0.0000000000f, 0.0000000000f, 0.6390329349f, -0.0099457391f},
    {0.0313754867f, -0.0067569858f, 13.3109920527f, -0.7855830684f, -0.0067597443f, -1.7766668401f, -1.9705412061f, -4.5734735152f, -0.0118388730f, -0.0096152006f, -0.0071583604f, 0.0556482407f, 0.1732609606f, 0.0702745523f, -0.0035937215f, -34.3563648708f, 30.6214198241f, -1.7153211280f, -0.0127485846f, 0.0000000000f, 0.0000000000f, 0.0000000000f, 0.4415501478f, 20.0001747007f},
    {14.3291161247f, -0.0034780397f, 26.6388104762f, -0.7850457447f, -0.0067597443f, -1.7766668996f, -1.9707244916f, -4.5734735152f, -0.0118388730f, -0.0096152006f, -0.0071583604f, 9.2446713396f, 41.7764429357f, 27.8726376334f, -0.0035937215f, -34.3563648708f, 30.5512783089f, -1.7345479024f, -0.0127485846f, 0.0000000000f, 0.0000000000f, 0.0000000000f, 0.4433454459f, 1.3708751014f},
    {-0.0087399081f, -0.0018385666f, -0.0168263708f, -0.7447464626f, -0.0067597443f, -1.7762111686f, -1.9479430138f, -4.4744494047f, 5.2250337593f, -0.0096152006f, -0.0071583604f, -0.0048917046f, -0.0067326566f, -0.0081738107f, -0.0035937215f, -34.3563648708f, 27.6069658685f, -1.7153211280f, 78.4400800220f, 0.0000000000f, 0.0000000000f, 0.0000000000f, 0.4451407440f, -0.0099457391f},
    {-0.0088523320f, -0.0067569858f, -0.0168263708f, -0.7861203922f, -0.0067597443f, -1.7766669000f, -1.9581678959f, -4.5767964719f, -0.0118388730f, -0.0096152006f, -0.0071583604f, -0.0040112716f, -0.0082862074f, -0.0083797338f, -0.0022257982f, -34.3563648708f, 31.7926200082f, -1.7153211280f, -0.0127485846f, 0.0000000000f, 0.0000000000f, 0.0000000000f, 29.1932486466f, -0.0099457391f},
    {-0.0091497571f, -0.0067569858f, -0.0168263708f, -0.7777918739f, -0.0067597443f, -1.7766669000f, -1.9707255335f, -4.5252906426f, 6.1006203876f, -0.0096152006f, -0.0071583604f, -0.0053544139f, -0.0082862074f, -0.0089613275f, -0.0036002981f, -34.3563648708f, 30.5643278931f, -1.7153211280f, 78.4400800220f, 0.0000000000f, 0.0000000000f, 0.0000000000f, 0.4505266382f, -0.0099457391f},
    {0.0202113705f, -0.0067569858f, 13.3109920527f, -0.7608661754f, 1.6071099952f, -1.7766545074f, -1.9704711184f, -4.4206175058f, -0.0118388730f, 11.8879407779f, -0.0071583604f, 0.0388428951f, 0.1232203188f, 0.0484383527f, -0.0035871450f, 0.0265686304f, 33.7636509586f, -1.7359779930f, -0.0127485846f, 0.0000000000f, 0.0000000000f, 0.0000000000f, -0.0126602624f, -0.0099457391f},
    {0.0201800626f, -0.0067569858f, 13.3109920527f, -0.7694633556f, 1.2310626773f, -1.7766578024f, -1.9704708469f, -4.4737848134f, -0.0118388730f, 9.1156947246f, -0.0071583604f, 0.0387957673f, 0.1230704773f, 0.0483743495f, -0.0035805684f, 0.0265686304f, 29.9379478504f, -1.7359779930f, -0.0127485846f, 0.0000000000f, 0.0000000000f, 0.0000000000f, -0.0126602624f, -0.0099457391f},
    {-0.0091454879f, -0.0067569858f, -0.0168263708f, 0.0048201837f, -0.0067597443f, -0.9402992233f, -1.0958767774f, 0.3145958278f, -0.0118388730f, -0.0096152006f, -0.0071583604f, -0.0053351344f, -0.0082862074f, -0.0089529793f, -0.0035805684f, 0.0265686304f, 5.1475439544f, 1.7175849973f, -0.0127485846f, 0.0000000000f, 0.0000000000f, 0.0000000000f, -0.0126602624f, -0.0099457391f},
    {0.0268216088f, 0.2358850300f, -0.0168263708f, 16.9455637140f, -0.0067597443f, -1.7744415460f, -1.9629381786f, -3.1146955127f, -0.0118388730f, -0.0096152006f, -0.0071583604f, -0.0042641917f, -0.0057376401f, -0.0054077622f, -0.0035937215f, 0.0265686304f, -0.0891454480f, -0.7880397565f, -0.0127485846f, 0.0000000000f, 0.0000000000f, 0.0000000000f, -0.0126602624f, -0.0099457391f},
    {0.3764256596f, 0.2752323839f, -0.0168263708f, 19.7052585494f, -0.0067597443f, -1.7764269792f, -1.9698827898f, -3.1201955790f, 4.2806909310f, -0.0096152006f, -0.0071583604f, 0.0047104426f, 0.1948682856f, 0.6647495738f, -0.0035937215f, 0.0265686304f, -0.0891454480f, 1.2801361570f, -0.0127485846f, 0.0000000000f, 0.0000000000f, 0.0000000000f, -0.0126602624f, -0.0099457391f},
    {-0.0091469110f, -0.0067569858f, -0.0168263708f, -0.6840288776f, -0.0067597443f, -1.6147342995f, -0.6584523993f, -3.9454346941f, -0.0118388730f, -0.0096152006f, -0.0071583604f, -0.0053415609f, -0.0082862074f, -0.0089557620f, -0.0035871450f, 0.0265686304f, 33.1524954308f, 1.1284406153f, -0.0127485846f, 0.0000000000f, 0.0000000000f, 0.0000000000f, -0.0126602624f, -0.0099457391f},
    {0.2979168050f, 0.3178586840f, -0.0168263708f, 22.8561250827f, -0.0067597443f, -1.7763193140f, -1.9695091988f, -3.1146955127f, -0.0118388730f, -0.0096152006f, -0.0071583604f, 0.0016138374f, 0.1460900741f, 0.5400074658f, -0.0035937215f, 0.0265686304f, -0.0891454480f, -1.6326936682f, -0.0127485846f, 0.0000000000f, 0.0000000000f, 0.0000000000f, -0.0126602624f, -0.0099457391f},
    {-0.0079387102f, -0.0083964589f, 19.9749012645f, -0.7861203922f, -0.0067597443f, -1.7766669000f, -1.9645573872f, -4.5767964719f, -0.0118388730f, -0.0096152006f, -0.0071583604f, -0.0035314249f, -0.0036502946f, -0.0068297449f, -0.0035937215f, -34.3563648708f, 32.1726891487f, -1.7376199489f, -0.0127485846f, 0.0000000000f, 0.0000000000f, 0.0000000000f, 0.4541172343f, 1.1022512519f},
    {0.2063767443f, 0.2752323839f, -0.0168263708f, 19.6278839279f, -0.0067597443f, -1.7762393041f, -1.9692178708f, -3.1256956453f, 8.5732207351f, -0.0096152006f, -0.0071583604f, 0.0002715757f, 0.0474138580f, 0.1664573488f, -0.0035937215f, 0.0265686304f, -0.0891454480f, 1.1537585164f, -0.0127485846f, 0.0000000000f, 0.0000000000f, 0.0000000000f, -0.0126602624f, -0.0099457391f},
    {-0.0091483340f, -0.0067569858f, -0.0168263708f, -0.4293374150f, -0.0067597443f, -0.6448432505f, 0.6538207349f, -2.3703532062f, -0.0118388730f, -0.0096152006f, -0.0071583604f, -0.0053479874f, -0.0082862074f, -0.0089585447f, -0.0035937215f, 0.0265686304f, -0.1098072897f, 1.7181676268f, -0.0127485846f, 0.0000000000f, 0.0000000000f, 0.0000000000f, -0.0126602624f, -0.0099457391f},
    {0.0213341860f, 0.3080218455f, -0.0168263708f, 22.0307957861f, -0.0067597443f, -1.7732878716f, -1.9588408882f, -3.1220950865f, 6.0878702521f, -0.0096152006f, -0.0071583604f, -0.0046411370f, -0.0070139236f, -0.0078983189f, -0.0035937215f, 0.0265686304f, -0.0891454480f, -0.7803596400f, -0.0127485846f, 0.0000000000f, 0.0000000000f, 0.0000000000f, -0.0126602624f, -0.0099457391f},
    {0.0297261291f, 0.2358850300f, -0.0168263708f, 16.7908144709f, -0.0067597443f, -1.7746257784f, -1.9635199925f, -3.1274556665f, 9.2302227757f, -0.0096152006f, -0.0071583604f, -0.0041761614f, -0.0057926954f, -0.0043391881f, -0.0035937215f, 0.0265686304f, -0.0891454480f, 0.5885019449f, -0.0127485846f, 0.0000000000f, 0.0000000000f, 0.0000000000f, -0.0126602624f, -0.0099457391f},
    {-0.0081592887f, -0.0034780397f, 13.3109920527f, -0.5443246998f, 16.7900204575f, -1.7729394133f, -1.9594128341f, -3.8291312087f, 72.4352882011f, 123.8173751774f, -0.0071583604f, -0.0044598426f, -0.0055035106f, -0.0073417699f, -0.0035937215f, -34.3563648708f, 34.9935742717f, -1.7345479024f, 78.4400800220f, 0.0000000000f, 0.0000000000f, 0.0000000000f, 0.1040341118f, 1.1399528448f},
    {15.6546717048f, 0.6457533000f, -0.0168263708f, 46.4983705576f, -0.0067597443f, -1.7766532721f, -1.9706778446f, -3.1146955127f, -0.0118388730f, -0.0096152006f, -0.0071583604f, 0.1719294388f, 5.9481860732f, 29.9672487177f, -0.0035937215f, 0.0265686304f, -0.0891454480f, -0.9651591319f, -0.0127485846f, 0.0000000000f, 0.0000000000f, 0.0000000000f, -0.0126602624f, -0.0099457391f},
    {-0.0091483340f, -0.0067569858f, -0.0168263708f, -0.7861203922f, -0.0067597443f, -1.7766669000f, 0.6538207349f, -4.5767964719f, -0.0118388730f, -0.0096152006f, -0.0071583604f, -0.0053479874f, -0.0082862074f, -0.0089585447f, -0.0035937215f, -34.3563648708f, 33.9300331574f, -1.7345479024f, -0.0127485846f, 0.0000000000f, 0.0000000000f, 0.0000000000f, 0.1040341118f, -0.0099457391f},
    {0.4023628403f, 0.2358850300f, -0.0168263708f, 16.7908144709f, -0.0067597443f, -1.7764740738f, -1.9700448210f, -3.1274556665f, 9.2302227757f, -0.0096152006f, -0.0071583604f, 0.0071177330f, 0.2304064091f, 0.7256249024f, -0.0036002981f, 0.0265686304f, -0.0891454480f, -1.4674387485f, -0.0127485846f, 0.0000000000f, 0.0000000000f, 0.0000000000f, -0.0126602624f, -0.0099457391f},
    {0.0308418291f, 0.2686744916f, -0.0168263708f, 19.3097882615f, -0.0067597443f, -1.7743983672f, -1.9627870796f, -3.1146955127f, -0.0118388730f, -0.0096152006f, -0.0071583604f, -0.0042857866f, -0.0063939152f, -0.0070134060f, -0.0035937215f, 0.0265686304f, -0.0891454480f, -1.3691332578f, -0.0127485846f, 0.0000000000f, 0.0000000000f, 0.0000000000f, -0.0126602624f, -0.0099457391f},
    {-0.0091483340f, -0.0067569858f, -0.0168263708f, -0.7673140606f, -0.0067597443f, -1.7170075209f, 0.6538207349f, -4.4604929865f, -0.0118388730f, -0.0096152006f, -0.0071583604f, -0.0053479874f, -0.0082862074f, -0.0089585447f, -0.0035937215f, 0.0265686304f, -0.0641337449f, 1.7238879894f, -0.0127485846f, 0.0000000000f, 0.0000000000f, 0.0000000000f, -0.0126602624f, -0.0099457391f},
    {4.5365197546f, 163.6847932154f, 13.3109920527f, -0.7861203922f, -0.0067597443f, -1.7766669000f, -1.9297053923f, -4.5767964719f, -0.0118388730f, -0.0096152006f, -0.0071583604f, -0.0051488215f, -0.0073752325f, 0.0013320461f, -0.0036002981f, -53.1106922352f, -0.4338719646f, -1.7387852080f, -0.0127485846f, 0.0000000000f, 0.0000000000f, 0.0000000000f, -0.0126602624f, -0.0099457391f},
    {-0.0078647097f, -0.0083964589f, 19.9749012645f, -0.7861203922f, -0.0067597443f, -1.7766669000f, -1.9649125850f, -4.5767964719f, -0.0118388730f, -0.0096152006f, -0.0071583604f, -0.0034200319f, -0.0036231872f, -0.0067796554f, -0.0035871450f, -34.3563648708f, 27.3225936789f, -1.7376199489f, -0.0127485846f, 0.0000000000f, 0.0000000000f, 0.0000000000f, 0.4541172343f, 1.1022512519f},
    {-0.0091469110f, -0.0067569858f, -0.0168263708f, -0.7861203922f, -0.0067597443f, -1.7766669000f, -0.6584523993f, -4.5767964719f, -0.0118388730f, -0.0096152006f, -0.0071583604f, -0.0053415609f, -0.0082862074f, -0.0089557620f, -0.0035871450f, -34.3563648708f, -0.4219098457f, 0.9780162653f, -0.0127485846f, 0.0000000000f, 0.0000000000f, 0.0000000000f, 0.4505266382f, -0.0099457391f},
    {-0.0091483340f, -0.0067569858f, -0.0168263708f, -0.0209713568f, -0.0067597443f, 0.6506175531f, 0.6538207349f, 0.1550939050f, -0.0118388730f, -0.0096152006f, -0.0071583604f, -0.0053479874f, -0.0082862074f, -0.0089585447f, -0.0035937215f, 0.0265686304f, 26.2166414160f, 0.9041812146f, -0.0127485846f, 0.0000000000f, 0.0000000000f, 0.0000000000f, -0.0126602624f, -0.0099457391f},
    {-0.0091483340f, -0.0067569858f, -0.0168263708f, 0.0048201837f, -0.0067597443f, 0.7324361302f, 0.6538207349f, 0.3145958278f, -0.0118388730f, -0.0096152006f, -0.0071583604f, -0.0053479874f, -0.0082862074f, -0.0089585447f, -0.0035937215f, 0.0265686304f, -0.1467811116f, 1.7310914090f, -0.0127485846f, 0.0000000000f, 0.0000000000f, 0.0000000000f, -0.0126602624f, -0.0099457391f},
    {0.4227329053f, 0.2752323839f, -0.0168263708f, 19.7052585494f, -0.0067597443f, -1.7764527039f, -1.9699731503f, -3.1201955790f, 4.2806909310f, -0.0096152006f, -0.0071583604f, 0.0059192224f, 0.1838219663f, 0.6255907868f, -0.0035937215f, 0.0265686304f, -0.0891454480f, -1.2379356821f, -0.0127485846f, 0.0000000000f, 0.0000000000f, 0.0000000000f, -0.0126602624f, -0.0099457391f},
    {-0.0087968316f, -0.0067569858f, -0.0168263708f, 0.0048201837f, -0.0067597443f, -1.7665495491f, -1.9601426857f, 0.3145958278f, -0.0118388730f, -0.0096152006f, -0.0071583604f, -0.0037606374f, -0.0082862074f, -0.0082712067f, -0.0019693125f, 0.0265686304f, 32.9790447072f, -0.3419044396f, -0.0127485846f, 0.0000000000f, 0.0000000000f, 0.0000000000f, -0.0126602624f, -0.0099457391f},
    {-0.0090629488f, -0.0067569858f, 13.3109920527f, -0.7861203922f, -0.0067597443f, -1.7766669000f, -1.8846748362f, -4.5767964719f, -0.0118388730f, -0.0096152006f, -0.0071583604f, -0.0052237414f, -0.0079259082f, -0.0087999283f, -0.0035937215f, -34.3563648708f, 29.0783064897f, 1.4392469835f, -0.0127485846f, 0.0000000000f, 0.0000000000f, 0.0000000000f, 117.6439936756f, -0.0052330400f},
    {0.0195097887f, 0.3080218455f, -0.0168263708f, 22.0307957861f, -0.0067597443f, -1.7730727708f, -1.9580843404f, -3.1220950865f, 6.0878702521f, -0.0096152006f, -0.0071583604f, -0.0046838250f, -0.0070701550f, -0.0079706703f, -0.0036002981f, 0.0265686304f, -0.0891454480f, 1.0812476238f, -0.0127485846f, 0.0000000000f, 0.0000000000f, 0.0000000000f, -0.0126602624f, -0.0099457391f},
    {0.0377068000f, 0.3178586840f, -0.0168263708f, 22.6626885288f, -0.0067597443f, -1.7744076908f, -1.9627544886f, -3.1266581569f, 10.0014752233f, -0.0096152006f, -0.0071583604f, -0.0042910996f, -0.0058339459f, -0.0053576728f, -0.0036002981f, 0.0265686304f, -0.0891454480f, -1.0126169550f, -0.0127485846f, 0.0000000000f, 0.0000000000f, 0.0000000000f, -0.0126602624f, -0.0099457391f},
    {0.2045637316f, -0.0083964589f, 13.3109920527f, -0.7861203922f, -0.0067597443f, -1.7766669000f, -1.9706993188f, -4.5767964719f, -0.0118388730f, -0.0096152006f, -0.0071583604f, 0.4771999981f, 1.1644605881f, 0.4089373958f, -0.0035937215f, -34.3563648708f, -0.4219098457f, 1.3914183962f, -0.0127485846f, 0.0000000000f, 0.0000000000f, 0.0000000000f, 0.4110300807f, 1.2153560306f},
    {0.0005870030f, 0.0161956373f, -0.0168263708f, 5.5414042149f, -0.0067597443f, -1.7737331344f, -1.9676567861f, 0.3145958278f, -0.0118388730f, -0.0096152006f, -0.0071583604f, -0.0024230647f, -0.0024324324f, -0.0049235646f, -0.0035937215f, 0.0265686304f, -0.0287911210f, -0.1705054267f, -0.0127485846f, 0.0000000000f, 0.0000000000f, 0.0000000000f, -0.0126602624f, -0.0099457391f},
    {-0.0091483340f, -0.0067569858f, -0.0168263708f, 0.0048201837f, -0.0067597443f, 0.7324361302f, 0.6538207349f, 0.3145958278f, -0.0118388730f, -0.0096152006f, -0.0071583604f, -0.0053479874f, -0.0082862074f, -0.0089585447f, -0.0035937215f, 0.0265686304f, 8.9139802009f, 0.5433216736f, -0.0127485846f, 0.0000000000f, 0.0000000000f, 0.0000000000f, -0.0126602624f, -0.0099457391f},
    {-0.0091483340f, -0.0067569858f, -0.0168263708f, -0.0725544379f, -0.0067597443f, 0.4869803990f, 0.6538207349f, -0.1639099406f, -0.0118388730f, -0.0096152006f, -0.0071583604f, -0.0053479874f, -0.0082862074f, -0.0089585447f, -0.0035937215f, 0.0265686304f, 34.0208365143f, 1.4075731239f, -0.0127485846f, 0.0000000000f, 0.0000000000f, 0.0000000000f, -0.0126602624f, -0.0099457391f},
    {-0.0091497571f, -0.0067569858f, -0.0168263708f, 0.0048201837f, -0.0067597443f, -1.7766669000f, -1.9707255335f, 0.3145958278f, -0.0118388730f, -0.0096152006f, -0.0071583604f, -0.0053544139f, -0.0082862074f, -0.0089613275f, -0.0036002981f, 0.0265686304f, -0.1494997750f, 1.7212926397f, -0.0127485846f, 0.0000000000f, 0.0000000000f, 0.0000000000f, -0.0126602624f, -0.0099457391f},
    {-0.0091483340f, -0.0067569858f, -0.0168263708f, 0.0048201837f, -0.0067597443f, 0.7324361302f, 0.6538207349f, 0.3145958278f, -0.0118388730f, -0.0096152006f, -0.0071583604f, -0.0053479874f, -0.0082862074f, -0.0089585447f, -0.0035937215f, 0.0265686304f, -0.1391688542f, -1.7378318142f, -0.0127485846f, 0.0000000000f, 0.0000000000f, 0.0000000000f, -0.0126602624f, -0.0099457391f},
    {0.3639537266f, 0.3178586840f, -0.0168263708f, 22.6626885288f, -0.0067597443f, -1.7763831750f, -1.9697244822f, -3.1266581569f, 10.0014752233f, -0.0096152006f, -0.0071583604f, 0.0031124110f, 0.1700926002f, 0.6254739115f, -0.0036002981f, 0.0265686304f, -0.0891454480f, -1.0190788461f, -0.0127485846f, 0.0000000000f, 0.0000000000f, 0.0000000000f, -0.0126602624f, -0.0099457391f},
    {-0.0054938470f, 0.0030798526f, -0.0168263708f, 2.3776419114f, -0.0067597443f, -1.7727601611f, -1.9666390465f, 0.3145958278f, -0.0118388730f, -0.0096152006f, -0.0071583604f, -0.0029958817f, -0.0029702986f, -0.0056498610f, -0.0035937215f, 0.0265686304f, 0.1136668401f, -1.2798850079f, -0.0127485846f, 0.0000000000f, 0.0000000000f, 0.0000000000f, -0.0126602624f, -0.0099457391f},
    {-0.0091469110f, -0.0067569858f, -0.0168263708f, -0.5067120366f, -0.0067597443f, -1.3334829409f, -0.6584523993f, -2.8488589747f, -0.0118388730f, -0.0096152006f, -0.0071583604f, -0.0053415609f, -0.0082862074f, -0.0089557620f, -0.0035871450f, 0.0265686304f, 33.4129433826f, -1.5084346805f, -0.0127485846f, 0.0000000000f, 0.0000000000f, 0.0000000000f, -0.0126602624f, -0.0099457391f},
    {0.0354896308f, 0.2817902763f, -0.0168263708f, 20.1394161481f, -0.0067597443f, -1.7745506625f, -1.9632789441f, -3.1227602167f, 6.3546169542f, -0.0096152006f, -0.0071583604f, -0.0042155042f, -0.0059438375f, -0.0050515708f, -0.0035937215f, 0.0265686304f, -0.0891454480f, -1.5717294334f, -0.0127485846f, 0.0000000000f, 0.0000000000f, 0.0000000000f, -0.0126602624f, -0.0099457391f},
    {0.0029180192f, 0.0686587758f, -0.0168263708f, 18.1964534291f, -0.0067597443f, -1.7695656650f, -1.9632975724f, 0.3145958278f, -0.0118388730f, -0.0096152006f, -0.0071583604f, -0.0041949059f, -0.0058720460f, -0.0067379143f, -0.0036002981f, 0.0265686304f, -0.0456468339f, -0.9051482909f, -0.0127485846f, 0.0000000000f, 0.0000000000f, 0.0000000000f, -0.0126602624f, -0.0099457391f},
    {0.0292437026f, 0.2490008147f, -0.0168263708f, 17.8138789114f, -0.0067597443f, -1.7744798348f, -1.9630403282f, -3.1207525478f, 4.4914592743f, -0.0096152006f, -0.0071583604f, -0.0042500761f, -0.0060686913f, -0.0064067676f, -0.0035937215f, 0.0265686304f, -0.0891454480f, 1.5615462173f, -0.0127485846f, 0.0000000000f, 0.0000000000f, 0.0000000000f, -0.0126602624f, -0.0099457391f},
    {0.0379529941f, 0.3178586840f, -0.0168263708f, 22.6626885288f, -0.0067597443f, -1.7744194991f, -1.9627961512f, -3.1266581569f, 10.0014752233f, -0.0096152006f, -0.0071583604f, -0.0042855128f, -0.0052019677f, -0.0040748273f, -0.0036002981f, 0.0265686304f, -0.0891454480f, 0.9130265901f, -0.0127485846f, 0.0000000000f, 0.0000000000f, 0.0000000000f, -0.0126602624f, -0.0099457391f},
    {-0.0091469110f, -0.0067569858f, -0.0168263708f, -0.7673140606f, -0.0067597443f, -1.7468372104f, -0.6584523993f, -4.4604929865f, -0.0118388730f, -0.0096152006f, -0.0071583604f, -0.0053415609f, -0.0082862074f, -0.0089557620f, -0.0035871450f, 0.0265686304f, 14.6954897446f, 1.1642988142f, -0.0127485846f, 0.0000000000f, 0.0000000000f, 0.0000000000f, -0.0126602624f, -0.0099457391f},
    {0.0355351695f, 0.3178586840f, -0.0168263708f, 22.8561250827f, -0.0067597443f, -1.7742783534f, -1.9623671059f, -3.1146955127f, -0.0118388730f, -0.0096152006f, -0.0071583604f, -0.0043403804f, -0.0065117373f, -0.0077842264f, -0.0035937215f, 0.0265686304f, -0.0891454480f, 1.6710276016f, -0.0127485846f, 0.0000000000f, 0.0000000000f, 0.0000000000f, -0.0126602624f, -0.0099457391f},
    {-0.0088324088f, -0.0067569858f, -0.0168263708f, -0.4513676892f, -0.0067597443f, -1.7719048509f, -1.9589562678f, -2.5065944320f, -0.0118388730f, -0.0096152006f, -0.0071583604f, -0.0039213003f, -0.0082862074f, -0.0083407754f, -0.0021337264f, 0.0265686304f, -0.1212256759f, -1.6981600402f, -0.0127485846f, 0.0000000000f, 0.0000000000f, 0.0000000000f, -0.0126602624f, -0.0099457391f},
    {-0.0091483340f, -0.0067569858f, -0.0168263708f, 0.0005215936f, -0.0067597443f, 0.7187997006f, 0.6538207349f, 0.2880121740f, -0.0118388730f, -0.0096152006f, -0.0071583604f, -0.0053479874f, -0.0082862074f, -0.0089585447f, -0.0035937215f, 0.0265686304f, 11.7729266112f, -1.2066325867f, -0.0127485846f, 0.0000000000f, 0.0000000000f, 0.0000000000f, -0.0126602624f, -0.0099457391f},
    {0.0329494208f, 0.2752323839f, -0.0168263708f, 19.6278839279f, -0.0067597443f, -1.7744778251f, -1.9630070626f, -3.1256956453f, 8.5732207351f, -0.0096152006f, -0.0071583604f, -0.0042554793f, -0.0060137390f, -0.0050404398f, -0.0035937215f, 0.0265686304f, -0.0891454480f, -1.5595471797f, -0.0127485846f, 0.0000000000f, 0.0000000000f, 0.0000000000f, -0.0126602624f, -0.0099457391f},
    {-0.0090814490f, -0.0067569858f, -0.0168263708f, 0.0005215936f, -0.0067597443f, -1.7246780125f, -1.9160474863f, 0.2880121740f, -0.0118388730f, -0.0096152006f, -0.0071583604f, -0.0050459410f, -0.0082862074f, -0.0088277557f, -0.0032846234f, 0.0265686304f, 11.8305622749f, -1.6719417116f, -0.0127485846f, 0.0000000000f, 0.0000000000f, 0.0000000000f, -0.0126602624f, -0.0099457391f},
    {-0.0091497571f, -0.0067569858f, -0.0168263708f, 0.0048201837f, -0.0067597443f, -1.7766669000f, -1.9707255335f, 0.3145958278f, -0.0118388730f, -0.0096152006f, -0.0071583604f, -0.0053544139f, -0.0082862074f, -0.0089613275f, -0.0036002981f, 0.0265686304f, -0.1418875176f, -1.7360309593f, -0.0127485846f, 0.0000000000f, 0.0000000000f, 0.0000000000f, -0.0126602624f, -0.0099457391f},
    {0.4499053253f, 0.3178586840f, -0.0168263708f, 22.8561250827f, -0.0067597443f, -1.7764343962f, -1.9699119150f, -3.1146955127f, -0.0118388730f, -0.0096152006f, -0.0071583604f, 0.0050629078f, 0.2196955402f, 0.8017719353f, -0.0036002981f, 0.0265686304f, -0.0891454480f, 1.3681132152f, -0.0127485846f, 0.0000000000f, 0.0000000000f, 0.0000000000f, -0.0126602624f, -0.0099457391f},
    {4.7660295073f, 163.3585380725f, 66.6222657467f, -0.7861203922f, -0.0067597443f, -1.7766669000f, -1.9317516423f, -4.5767964719f, -0.0118388730f, -0.0096152006f, -0.0071583604f, -0.0051380272f, -0.0029544582f, 0.4091711464f, -0.0036002981f, -53.1106922352f, -0.4338719646f, -1.7387852080f, -0.0127485846f, 0.0000000000f, 0.0000000000f, 0.0000000000f, -0.0126602624f, -0.0099457391f},
    {0.1433012664f, -0.0083964589f, 13.3109920527f, -0.7861203922f, -0.0067597443f, -1.7766669000f, -1.9706887844f, -4.5767964719f, -0.0118388730f, -0.0096152006f, -0.0071583604f, 0.3388724033f, 0.8282644270f, 0.2891402256f, -0.0035871450f, -34.3563648708f, -0.4219098457f, 0.8344245706f, -0.0127485846f, 0.0000000000f, 0.0000000000f, 0.0000000000f, 0.4110300807f, 1.2153560306f},
    {-0.0080312109f, -0.0083964589f, 19.9749012645f, -0.7861203922f, -0.0067597443f, -1.7766669000f, -1.9640472988f, -4.5767964719f, -0.0118388730f, -0.0096152006f, -0.0071583604f, -0.0036706661f, -0.0032936204f, -0.0067796554f, -0.0035937215f, -34.3563648708f, 21.3872077879f, -1.7376199489f, -0.0127485846f, 0.0000000000f, 0.0000000000f, 0.0000000000f, 0.4541172343f, 1.1588036413f},
    {-0.0091483340f, -0.0067569858f, -0.0168263708f, -0.0344044508f, -0.0067597443f, 0.6080037109f, 0.6538207349f, 0.0720199869f, -0.0118388730f, -0.0096152006f, -0.0071583604f, -0.0053479874f, -0.0082862074f, -0.0089585447f, -0.0035937215f, 0.0265686304f, 33.5244085812f, -1.4459344224f, -0.0127485846f, 0.0000000000f, 0.0000000000f, 0.0000000000f, -0.0126602624f, -0.0099457391f},
    {-0.0091483340f, -0.0067569858f, -0.0168263708f, 0.0005215936f, -0.0067597443f, 0.7187997006f, 0.6538207349f, 0.2880121740f, -0.0118388730f, -0.0096152006f, -0.0071583604f, -0.0053479874f, -0.0082862074f, -0.0089585447f, -0.0035937215f, 0.0265686304f, 33.0160185291f, 1.4970332391f, -0.0127485846f, 0.0000000000f, 0.0000000000f, 0.0000000000f, -0.0126602624f, -0.0099457391f},
    {-0.0091483340f, -0.0067569858f, -0.0168263708f, -0.7662394130f, -0.0067597443f, -1.7135984135f, 0.6538207349f, -4.4538470730f, -0.0118388730f, -0.0096152006f, -0.0071583604f, -0.0053479874f, -0.0082862074f, -0.0089585447f, -0.0035937215f, 0.0265686304f, -0.1272067353f, -1.7113486540f, -0.0127485846f, 0.0000000000f, 0.0000000000f, 0.0000000000f, -0.0126602624f, -0.0099457391f},
    {46.1445590621f, 0.0014403796f, 26.6388104762f, -0.7861203922f, -0.0067597443f, -1.7766669000f, -1.9707250884f, -4.5767964719f, -0.0118388730f, -0.0096152006f, -0.0071583604f, 20.8372006832f, 109.4551354707f, 87.4754364307f, -0.0035871450f, -34.3563648708f, 27.0670393212f, -1.7345479024f, -0.0127485846f, 0.0000000000f, 0.0000000000f, 0.0000000000f, 117.6439936756f, 136.4745333136f},
    {-0.0091469110f, -0.0067569858f, -0.0168263708f, -0.7861203922f, -0.0067597443f, -1.7766669000f, -0.6584523993f, -4.5767964719f, -0.0118388730f, -0.0096152006f, -0.0071583604f, -0.0053415609f, -0.0082862074f, -0.0089557620f, -0.0035871450f, -34.3563648708f, -0.3903733505f, 0.1928435314f, -0.0127485846f, 0.0000000000f, 0.0000000000f, 0.0000000000f, 0.3966676962f, -0.0099457391f},
    {-0.0090814490f, -0.0067569858f, -0.0168263708f, -0.7657020893f, -0.0067597443f, -1.7753174616f, -1.9160474863f, -4.4505241163f, -0.0118388730f, -0.0096152006f, -0.0071583604f, -0.0050459410f, -0.0082862074f, -0.0088277557f, -0.0032846234f, 0.0265686304f, -0.0886017153f, -1.6943994315f, -0.0127485846f, 0.0000000000f, 0.0000000000f, 0.0000000000f, -0.0126602624f, -0.0099457391f},
    {-0.0091483340f, -0.0067569858f, -0.0168263708f, 0.0005215936f, -0.0067597443f, 0.7187997006f, 0.6538207349f, 0.2880121740f, -0.0118388730f, -0.0096152006f, -0.0071583604f, -0.0053479874f, -0.0082862074f, -0.0089585447f, -0.0035937215f, 0.0265686304f, 33.0964909652f, -1.3266542688f, -0.0127485846f, 0.0000000000f, 0.0000000000f, 0.0000000000f, -0.0126602624f, -0.0099457391f},
    {-0.0091469110f, -0.0067569858f, -0.0168263708f, -0.7415225200f, -0.0067597443f, -1.7059279219f, -0.6584523993f, -4.3009910637f, -0.0118388730f, -0.0096152006f, -0.0071583604f, -0.0053415609f, -0.0082862074f, -0.0089557620f, -0.0035871450f, 0.0265686304f, 4.8555595074f, 1.4840035242f, -0.0127485846f, 0.0000000000f, 0.0000000000f, 0.0000000000f, -0.0126602624f, -0.0099457391f},
    {0.1313259907f, 0.2490008147f, -0.0168263708f, 17.8138789114f, -0.0067597443f, -1.7760691527f, -1.9686250882f, -3.1207525478f, 4.4914592743f, -0.0096152006f, -0.0071583604f, -0.0013138121f, 0.0282876791f, 0.0723699592f, -0.0035937215f, 0.0265686304f, -0.0891454480f, -1.2697154744f, -0.0127485846f, 0.0000000000f, 0.0000000000f, 0.0000000000f, -0.0126602624f, -0.0099457391f},
    {0.0242372831f, 0.2358850300f, -0.0168263708f, 16.7908144709f, -0.0067597443f, -1.7742902170f, -1.9623353980f, -3.1274556665f, 9.2302227757f, -0.0096152006f, -0.0071583604f, -0.0043425176f, -0.0064139661f, -0.0075365621f, -0.0036002981f, 0.0265686304f, -0.0891454480f, -1.4196101611f, -0.0127485846f, 0.0000000000f, 0.0000000000f, 0.0000000000f, -0.0126602624f, -0.0099457391f},
    {0.5204505860f, 0.0030798526f, -0.0168263708f, 2.3776419114f, -0.0067597443f, -1.7766399312f, -1.9706973239f, 0.3145958278f, -0.0118388730f, -0.0096152006f, -0.0071583604f, 0.3363059272f, 1.1560289973f, 0.7915676095f, -0.0036002981f, 0.0265686304f, -0.1272067353f, 1.0542877667f, -0.0127485846f, 0.0000000000f, 0.0000000000f, 0.0000000000f, -0.0126602624f, -0.0099457391f},
    {61.1949745971f, -0.0067569858f, -0.0168263708f, -0.7861203922f, -0.0067597443f, -1.7766669000f, -1.9707254725f, -4.5767964719f, -0.0118388730f, -0.0096152006f, -0.0071583604f, 276.3863737176f, -0.0082862074f, 119.6713447285f, 282.8408854826f, -34.3563648708f, -0.4219098457f, 0.6345296774f, -0.0127485846f, 0.0000000000f, 0.0000000000f, 0.0000000000f, 0.4325736575f, -0.0099457391f},
    {-0.0091483340f, -0.0067569858f, -0.0168263708f, -0.6888647915f, -0.0067597443f, -1.4681426823f, 0.6538207349f, -3.9753413046f, -0.0118388730f, -0.0096152006f, -0.0071583604f, -0.0053479874f, -0.0082862074f, -0.0089585447f, -0.0035937215f, 0.0265686304f, 13.7330829081f, -0.1028144692f, -0.0127485846f, 0.0000000000f, 0.0000000000f, 0.0000000000f, -0.0126602624f, -0.0099457391f},
    {-0.0088637167f, -0.0083964589f, 6.6470828410f, -0.7861203922f, -0.0067597443f, -1.7766669000f, -1.9576680894f, -4.5767964719f, -0.0118388730f, -0.0096152006f, -0.0071583604f, -0.0040626837f, -0.0082862074f, -0.0084019958f, -0.0022784106f, -34.3563648708f, -0.3903733505f, 0.1927905651f, -0.0127485846f, 0.0000000000f, 0.0000000000f, 0.0000000000f, 0.4253924653f, 0.2963797033f},
    {0.5630008824f, -0.0083964589f, 13.3109920527f, -0.5239063969f, -0.0067597443f, -1.7766648310f, -1.9707157416f, -1.3335907079f, -0.0118388730f, -0.0096152006f, -0.0071583604f, 1.2865332299f, 3.1313850100f, 1.1098329325f, -0.0035871450f, -34.3563648708f, -0.4219098457f, 0.4132893570f, 78.4400800220f, 0.0000000000f, 0.0000000000f, 0.0000000000f, 0.3966676962f, -0.0052330400f},
    {0.0304035184f, 0.3178586840f, -0.0168263708f, 22.8561250827f, -0.0067597443f, -1.7739684628f, -1.9612826816f, -3.1146955127f, -0.0118388730f, -0.0096152006f, -0.0071583604f, -0.0044568328f, -0.0067180122f, -0.0079511911f, -0.0035937215f, 0.0265686304f, -0.0891454480f, -1.6776091079f, -0.0127485846f, 0.0000000000f, 0.0000000000f, 0.0000000000f, -0.0126602624f, -0.0099457391f},
    {-0.0091483340f, -0.0067569858f, -0.0168263708f, -0.7861203922f, -0.0067597443f, -1.7766669000f, 0.6538207349f, -4.5767964719f, -0.0118388730f, -0.0096152006f, -0.0071583604f, -0.0053479874f, -0.0082862074f, -0.0089585447f, -0.0035937215f, -34.3563648708f, -0.4219098457f, 0.6478242238f, -0.0127485846f, 0.0000000000f, 0.0000000000f, 0.0000000000f, 51.9809669760f, -0.0099457391f},
    {-0.0089206401f, -0.0083964589f, 6.6470828410f, -0.7861203922f, -0.0067597443f, -1.7766669000f, -1.9544240039f, -4.5767964719f, -0.0118388730f, -0.0096152006f, -0.0071583604f, -0.0043197445f, -0.0082862074f, -0.0085133055f, -0.0025414728f, -34.3563648708f, -0.3903733505f, 0.3125474155f, -0.0127485846f, 0.0000000000f, 0.0000000000f, 0.0000000000f, 0.4253924653f, 0.2963797033f},
    {0.5070607619f, -0.0083964589f, 13.3109920527f, -0.7861203922f, -0.0067597443f, -1.7766669000f, -1.9707146805f, -4.5767964719f, -0.0118388730f, -0.0096152006f, -0.0071583604f, 1.1602232244f, 2.8244110745f, 1.0004460112f, -0.0035871450f, -34.3563648708f, -0.4219098457f, 0.7325173701f, -0.0127485846f, 0.0000000000f, 0.0000000000f, 0.0000000000f, 0.4325736575f, 1.2153560306f},
    {-0.0090828720f, -0.0067569858f, -0.0168263708f, 0.0048201837f, -0.0067597443f, -1.7232817291f, -1.9148841236f, 0.3145958278f, -0.0118388730f, -0.0096152006f, -0.0071583604f, -0.0050523676f, -0.0082862074f, -0.0088305385f, -0.0032912000f, 0.0265686304f, 33.0600608759f, 1.4215032662f, -0.0127485846f, 0.0000000000f, 0.0000000000f, 0.0000000000f, -0.0126602624f, -0.0099457391f},
    {-0.0091483340f, -0.0067569858f, -0.0168263708f, 0.0048201837f, -0.0067597443f, 0.7324361302f, 0.6538207349f, 0.3145958278f, -0.0118388730f, -0.0096152006f, -0.0071583604f, -0.0053479874f, -0.0082862074f, -0.0089585447f, -0.0035937215f, 0.0265686304f, 0.1180167016f, -1.7385203764f, -0.0127485846f, 0.0000000000f, 0.0000000000f, 0.0000000000f, -0.0126602624f, -0.0099457391f},
    {0.0317255661f, 0.2358850300f, -0.0168263708f, 16.9455637140f, -0.0067597443f, -1.7747085296f, -1.9638724552f, -3.1146955127f, -0.0118388730f, -0.0096152006f, -0.0071583604f, -0.0041155623f, -0.0050590559f, -0.0017401043f, -0.0035937215f, 0.0265686304f, -0.0891454480f, 0.2100046192f, -0.0127485846f, 0.0000000000f, 0.0000000000f, 0.0000000000f, -0.0126602624f, -0.0099457391f},
    {4.5645132958f, 162.7961988061f, -0.0168263708f, -0.7861203922f, -0.0067597443f, -1.7766669000f, -1.9301785813f, -4.5767964719f, -0.0118388730f, -0.0096152006f, -0.0071583604f, -0.0051464221f, -0.0074102869f, 0.0025230609f, -0.0036002981f, -53.1106922352f, -0.4338719646f, -1.7387852080f, -0.0127485846f, 0.0000000000f, 0.0000000000f, 0.0000000000f, -0.0126602624f, -0.0099457391f},
    {-0.0090928337f, -0.0067569858f, -0.0168263708f, -0.7673140606f, -0.0067597443f, -1.7751754155f, -1.9051118768f, -4.4604929865f, -0.0118388730f, -0.0096152006f, -0.0071583604f, -0.0050973532f, -0.0082862074f, -0.0088500177f, -0.0033372359f, 0.0265686304f, -0.0712022697f, 1.7118646347f, -0.0127485846f, 0.0000000000f, 0.0000000000f, 0.0000000000f, -0.0126602624f, -0.0099457391f},
    {1.3899438353f, -0.0001990935f, -0.0168263708f, 1.5867013355f, -0.0067597443f, -1.7766592436f, -1.9707175249f, 0.3145958278f, -0.0118388730f, -0.0096152006f, -0.0071583604f, 1.2582790418f, 4.8468302033f, 2.7265882708f, -0.0035937215f, 0.0265686304f, 0.0995297906f, -0.3093831188f, -0.0127485846f, 0.0000000000f, 0.0000000000f, 0.0000000000f, -0.0126602624f, -0.0099457391f},
    {-0.0091483340f, -0.0067569858f, -0.0168263708f, -0.4245015012f, -0.0067597443f, -0.6295022673f, 0.6538207349f, -2.3404465957f, -0.0118388730f, -0.0096152006f, -0.0071583604f, -0.0053479874f, -0.0082862074f, -0.0089585447f, -0.0035937215f, 0.0265686304f, -0.1272067353f, -1.7203529285f, -0.0127485846f, 0.0000000000f, 0.0000000000f, 0.0000000000f, -0.0126602624f, -0.0099457391f},
    {4.0965994978f, -0.0034780397f, -0.0168263708f, 0.7699692191f, -0.0067597443f, -1.7766651890f, -1.9707237142f, 0.2348448664f, -0.0118388730f, -0.0096152006f, -0.0071583604f, 6.1750304529f, 18.3877580786f, 8.0195333528f, -0.0035937215f, 0.0265686304f, -0.1462373790f, 0.4593170894f, -0.0127485846f, 0.0000000000f, 0.0000000000f, 0.0000000000f, -0.0126602624f, -0.0099457391f},
    {0.0311748315f, 0.2686744916f, -0.0168263708f, 19.3097882615f, -0.0067597443f, -1.7744171009f, -1.9628526357f, -3.1146955127f, -0.0118388730f, -0.0096152006f, -0.0071583604f, -0.0042768883f, -0.0063771776f, -0.0070356680f, -0.0035937215f, 0.0265686304f, -0.0891454480f, 0.9609081438f, -0.0127485846f, 0.0000000000f, 0.0000000000f, 0.0000000000f, -0.0126602624f, -0.0099457391f},
    {-0.0091497571f, -0.0067569858f, -0.0168263708f, -0.7635527942f, -0.0067597443f, -1.7766669000f, -1.9707255335f, -4.4372322894f, -0.0118388730f, -0.0096152006f, -0.0071583604f, -0.0053544139f, -0.0082862074f, -0.0089613275f, -0.0036002981f, 0.0265686304f, 0.1147543055f, -1.7196114000f, -0.0127485846f, 0.0000000000f, 0.0000000000f, 0.0000000000f, -0.0126602624f, -0.0099457391f}
};

static const float svm_feature_means[SVM_NUM_FEATURES] = {
    6429.5142750000f,
    6.1214375000f,
    0.0025250000f,
    2926.0585500000f,
    0.8628375000f,
    2084612425.5214698315f,
    1501764.7486410348f,
    1377.3265348150f,
    0.0424561960f,
    0.0832411012f,
    0.0519099155f,
    833.1749168917f,
    750.2936904137f,
    3220.3193750000f,
    547.4444125000f,
    16.9915000000f,
    797.9508750000f,
    32828.1291625000f,
    0.0001625000f,
    0.0000000000f,
    0.0000000000f,
    0.0000000000f,
    6.0519000000f,
    1.1104125000f
};

static const float svm_feature_stds[SVM_NUM_FEATURES] = {
    702697.8076032178f,
    609.9520706917f,
    0.1500620684f,
    3722.1506769913f,
    127.6435110920f,
    1173327665.1569476128f,
    762036.4800107647f,
    300.9368109940f,
    3.5861687223f,
    8.6572402085f,
    7.2516487926f,
    155605.2501670343f,
    90547.2981604800f,
    359357.4032127984f,
    152055.3030450391f,
    0.3199261634f,
    1839.1390552269f,
    18879.9220350185f,
    0.0127465130f,
    1.0000000000f,
    1.0000000000f,
    1.0000000000f,
    557.0105710681f,
    212.1926258650f
};

#endif // SVM_MODEL_H
